<?xml version="1.0"?>
<opencv_storage>
<cascade>
  <stageType>BOOST</stageType>
  <featureType>HAAR</featureType>
  <height>20</height>
  <width>20</width>
  <stageParams>
    <boostType>GAB</boostType>
    <minHitRate>9.9900001287460327e-01</minHitRate>
    <maxFalseAlarm>5.0000000745058060e-02</maxFalseAlarm>
    <weightTrimRate>9.4999999999999996e-01</weightTrimRate>
    <maxDepth>1</maxDepth>
    <maxWeakCount>100</maxWeakCount></stageParams>
  <featureParams>
    <maxCatCount>0</maxCatCount>
    <featSize>1</featSize>
    <mode>ALL</mode></featureParams>
  <stageNum>3</stageNum>
  <stages>
    <!-- stage 0 -->
    <_>
      <maxWeakCount>8</maxWeakCount>
      <stageThreshold>-7.4202597141265869e-01</stageThreshold>
      <weakClassifiers>
        <_>
          <internalNodes>
            0 -1 7 3.9197327569127083e-03</internalNodes>
          <leafValues>
            -5.9674799442291260e-01 9.5324677228927612e-01</leafValues></_>
        <_>
          <internalNodes>
            0 -1 12 1.4647709205746651e-02</internalNodes>
          <leafValues>
            -6.2921470403671265e-01 8.8773226737976074e-01</leafValues></_>
        <_>
          <internalNodes>
            0 -1 3 1.6039421781897545e-02</internalNodes>
          <leafValues>
            -9.4363933801651001e-01 5.8606231212615967e-01</leafValues></_>
        <_>
          <internalNodes>
            0 -1 9 -1.5902012586593628e-02</internalNodes>
          <leafValues>
            6.3360667228698730e-01 -7.2475451231002808e-01</leafValues></_>
        <_>
          <internalNodes>
            0 -1 15 -2.1287720650434494e-02</internalNodes>
          <leafValues>
            9.7331041097640991e-01 -4.9728715419769287e-01</leafValues></_>
        <_>
          <internalNodes>
            0 -1 10 -1.1878677643835545e-02</internalNodes>
          <leafValues>
            9.8223704099655151e-01 -4.4112718105316162e-01</leafValues></_>
        <_>
          <internalNodes>
            0 -1 1 1.6426518559455872e-02</internalNodes>
          <leafValues>
            -8.8792377710342407e-01 6.3492637872695923e-01</leafValues></_>
        <_>
          <internalNodes>
            0 -1 6 -2.5795595720410347e-02</internalNodes>
          <leafValues>
            9.8774307966232300e-01 -5.2439200878143311e-01</leafValues></_></weakClassifiers></_>
    <!-- stage 1 -->
    <_>
      <maxWeakCount>9</maxWeakCount>
      <stageThreshold>-2.3146037757396698e-01</stageThreshold>
      <weakClassifiers>
        <_>
          <internalNodes>
            0 -1 8 4.8011112958192825e-03</internalNodes>
          <leafValues>
            -5.7744109630584717e-01 8.4482759237289429e-01</leafValues></_>
        <_>
          <internalNodes>
            0 -1 13 2.6865797117352486e-03</internalNodes>
          <leafValues>
            -5.8673018217086792e-01 8.3493047952651978e-01</leafValues></_>
        <_>
          <internalNodes>
            0 -1 5 3.4423917531967163e-02</internalNodes>
          <leafValues>
            5.4905813932418823e-01 -9.6953445672988892e-01</leafValues></_>
        <_>
          <internalNodes>
            0 -1 19 6.6581172868609428e-03</internalNodes>
          <leafValues>
            -9.5681577920913696e-01 3.3415299654006958e-01</leafValues></_>
        <_>
          <internalNodes>
            0 -1 2 -1.3994941487908363e-02</internalNodes>
          <leafValues>
            4.1913822293281555e-01 -8.3911693096160889e-01</leafValues></_>
        <_>
          <internalNodes>
            0 -1 0 -3.1933857826516032e-05</internalNodes>
          <leafValues>
            -9.5863330364227295e-01 3.2211840152740479e-01</leafValues></_>
        <_>
          <internalNodes>
            0 -1 0 3.3238047763006762e-05</internalNodes>
          <leafValues>
            3.7540686130523682e-01 -1.</leafValues></_>
        <_>
          <internalNodes>
            0 -1 17 -5.8925012126564980e-03</internalNodes>
          <leafValues>
            9.4541984796524048e-01 -5.0811845064163208e-01</leafValues></_>
        <_>
          <internalNodes>
            0 -1 14 -6.4216032624244690e-03</internalNodes>
          <leafValues>
            9.6526950597763062e-01 -5.5904525518417358e-01</leafValues></_></weakClassifiers></_>
    <!-- stage 2 -->
    <_>
      <maxWeakCount>6</maxWeakCount>
      <stageThreshold>3.0589371919631958e-01</stageThreshold>
      <weakClassifiers>
        <_>
          <internalNodes>
            0 -1 18 -5.5540748871862888e-03</internalNodes>
          <leafValues>
            9.5266270637512207e-01 -4.8640483617782593e-01</leafValues></_>
        <_>
          <internalNodes>
            0 -1 20 1.9764468073844910e-02</internalNodes>
          <leafValues>
            -4.2851212620735168e-01 9.3581694364547729e-01</leafValues></_>
        <_>
          <internalNodes>
            0 -1 21 -6.9057612563483417e-05</internalNodes>
          <leafValues>
            -9.9531930685043335e-01 5.0273102521896362e-01</leafValues></_>
        <_>
          <internalNodes>
            0 -1 16 1.6186278313398361e-02</internalNodes>
          <leafValues>
            -6.1865681409835815e-01 8.5569965839385986e-01</leafValues></_>
        <_>
          <internalNodes>
            0 -1 4 -5.7854664191836491e-05</internalNodes>
          <leafValues>
            -1. 5.1162981986999512e-01</leafValues></_>
        <_>
          <internalNodes>
            0 -1 11 1.7150113359093666e-02</internalNodes>
          <leafValues>
            -5.3922241926193237e-01 1.</leafValues></_></weakClassifiers></_></stages>
  <features>
    <_>
      <rects>
        <_>
          0 0 1 3 -1.</_>
        <_>
          0 1 1 1 3.</_></rects>
      <tilted>0</tilted></_>
    <_>
      <rects>
        <_>
          0 0 20 5 -1.</_>
        <_>
          5 0 10 5 2.</_></rects>
      <tilted>0</tilted></_>
    <_>
      <rects>
        <_>
          0 14 7 6 -1.</_>
        <_>
          0 17 7 3 2.</_></rects>
      <tilted>0</tilted></_>
    <_>
      <rects>
        <_>
          0 15 20 5 -1.</_>
        <_>
          5 15 10 5 2.</_></rects>
      <tilted>0</tilted></_>
    <_>
      <rects>
        <_>
          0 18 1 2 -1.</_>
        <_>
          0 19 1 1 2.</_></rects>
      <tilted>0</tilted></_>
    <_>
      <rects>
        <_>
          2 8 16 8 -1.</_>
        <_>
          6 8 8 8 2.</_></rects>
      <tilted>0</tilted></_>
    <_>
      <rects>
        <_>
          5 10 3 3 -1.</_>
        <_>
          6 11 1 1 9.</_></rects>
      <tilted>0</tilted></_>
    <_>
      <rects>
        <_>
          6 8 3 1 -1.</_>
        <_>
          7 8 1 1 3.</_></rects>
      <tilted>0</tilted></_>
    <_>
      <rects>
        <_>
          7 6 3 1 -1.</_>
        <_>
          8 6 1 1 3.</_></rects>
      <tilted>0</tilted></_>
    <_>
      <rects>
        <_>
          7 9 6 3 -1.</_>
        <_>
          9 10 2 1 9.</_></rects>
      <tilted>0</tilted></_>
    <_>
      <rects>
        <_>
          8 13 3 3 -1.</_>
        <_>
          9 13 1 3 3.</_></rects>
      <tilted>0</tilted></_>
    <_>
      <rects>
        <_>
          9 6 3 2 -1.</_>
        <_>
          10 6 1 2 3.</_></rects>
      <tilted>0</tilted></_>
    <_>
      <rects>
        <_>
          9 7 3 3 -1.</_>
        <_>
          10 8 1 1 9.</_></rects>
      <tilted>0</tilted></_>
    <_>
      <rects>
        <_>
          9 10 1 2 -1.</_>
        <_>
          9 11 1 1 2.</_></rects>
      <tilted>0</tilted></_>
    <_>
      <rects>
        <_>
          9 12 3 1 -1.</_>
        <_>
          10 12 1 1 3.</_></rects>
      <tilted>0</tilted></_>
    <_>
      <rects>
        <_>
          9 12 3 3 -1.</_>
        <_>
          10 13 1 1 9.</_></rects>
      <tilted>0</tilted></_>
    <_>
      <rects>
        <_>
          10 5 3 3 -1.</_>
        <_>
          11 6 1 1 9.</_></rects>
      <tilted>0</tilted></_>
    <_>
      <rects>
        <_>
          11 11 1 3 -1.</_>
        <_>
          11 12 1 1 3.</_></rects>
      <tilted>0</tilted></_>
    <_>
      <rects>
        <_>
          11 13 3 1 -1.</_>
        <_>
          12 13 1 1 3.</_></rects>
      <tilted>0</tilted></_>
    <_>
      <rects>
        <_>
          13 0 7 6 -1.</_>
        <_>
          13 3 7 3 2.</_></rects>
      <tilted>0</tilted></_>
    <_>
      <rects>
        <_>
          13 8 3 3 -1.</_>
        <_>
          14 9 1 1 9.</_></rects>
      <tilted>0</tilted></_>
    <_>
      <rects>
        <_>
          17 0 2 2 -1.</_>
        <_>
          17 1 2 1 2.</_></rects>
      <tilted>0</tilted></_></features></cascade>
</opencv_storage>
