<?xml version="1.0"?>
<opencv_storage>
<stage0>
  <maxWeakCount>8</maxWeakCount>
  <stageThreshold>-7.4202597141265869e-01</stageThreshold>
  <weakClassifiers>
    <_>
      <internalNodes>
        0 -1 61276 3.9197327569127083e-03</internalNodes>
      <leafValues>
        -5.9674799442291260e-01 9.5324677228927612e-01</leafValues></_>
    <_>
      <internalNodes>
        0 -1 84176 1.4647709205746651e-02</internalNodes>
      <leafValues>
        -6.2921470403671265e-01 8.8773226737976074e-01</leafValues></_>
    <_>
      <internalNodes>
        0 -1 9444 1.6039421781897545e-02</internalNodes>
      <leafValues>
        -9.4363933801651001e-01 5.8606231212615967e-01</leafValues></_>
    <_>
      <internalNodes>
        0 -1 69940 -1.5902012586593628e-02</internalNodes>
      <leafValues>
        6.3360667228698730e-01 -7.2475451231002808e-01</leafValues></_>
    <_>
      <internalNodes>
        0 -1 86004 -2.1287720650434494e-02</internalNodes>
      <leafValues>
        9.7331041097640991e-01 -4.9728715419769287e-01</leafValues></_>
    <_>
      <internalNodes>
        0 -1 79227 -1.1878677643835545e-02</internalNodes>
      <leafValues>
        9.8223704099655151e-01 -4.4112718105316162e-01</leafValues></_>
    <_>
      <internalNodes>
        0 -1 424 1.6426518559455872e-02</internalNodes>
      <leafValues>
        -8.8792377710342407e-01 6.3492637872695923e-01</leafValues></_>
    <_>
      <internalNodes>
        0 -1 53719 -2.5795595720410347e-02</internalNodes>
      <leafValues>
        9.8774307966232300e-01 -5.2439200878143311e-01</leafValues></_></weakClassifiers></stage0>
</opencv_storage>
